encog,BasicNetwork,java,3.3.0,1,1497873041819
[BASIC]
[BASIC:PARAMS]
[BASIC:NETWORK]
beginTraining=0
connectionLimit=0
contextTargetOffset=0,0,0
contextTargetSize=0,0,0
endTraining=2
hasContext=f
inputCount=28
layerCounts=3,15,29
layerFeedCounts=3,14,28
layerContextCount=0,0,0
layerIndex=0,3,18
output=0,0,0,0,0,0,0,0,0,0,0,0,0,0,0,0,0,1,0,0,0,0,0,0,0,0,0,0,0,0,0,0,0,0,0,0,0,0,0,0,0,0,0,0,0,0,1
outputCount=3
weightIndex=0,45,451
weights=0.283191027,0.6068182268,1.3201279426,0.8832122537,-0.310084758,-0.9693613419,-0.99371381,-0.1240511714,0.3787681365,0.9771575565,-2.3550264651,-1.8619071515,1.4629369332,1.3431321314,0.322984085,0.1549601566,-0.159189613,-0.8824002922,-0.8199396591,0.7215651491,-1.2799708735,0.1454658217,1.0854673232,-0.2825198517,-0.3184797754,-0.2580131824,-0.1103502454,-2.6464109937,-0.2091892415,0.1199060747,-1.0565914834,-0.6834462461,-1.7155153995,-2.4052022932,-2.6370382563,0.8605490666,0.3223674774,-2.5144294929,-1.8034357834,-1.2167190025,0.8341183389,1.1356689344,0.3473581685,-1.963013815,0.3774773384,-2.009210706,-0.2406932108,-1.1669745477,-1.3960030778,-2.6383646887,-2.2986273248,-0.7268073948,-0.3278794442,-1.939398519,1.1215816743,-0.5842012971,-1.1491852829,-0.4708401207,0.2346160816,-1.1799172804,0.4206928822,-0.8179065247,1.2305546011,0.3291086439,-0.9891216173,0.7392630065,-2.1680101107,-1.5886666335,2.548905773,0.0019773619,-1.1500341143,-0.8174735717,-0.7905644904,-0.6398655725,-0.8920889061,0.544605052,-1.0286836122,-1.0309324412,0.5020031231,-1.0834618824,-1.0193277946,-0.8243163798,0.3035509983,0.5237270154,-0.6158367378,-0.8814077554,0.4579221783,-1.0054869736,-1.1210632465,0.4620782601,0.5540656862,-0.1624723649,-1.2054363647,0.296231845,-0.6829395126,0.3124449282,-0.4356069848,-0.9449724364,0.2203371951,0.0531704232,-2.2526427683,-0.5486267151,-0.5911965661,-1.9753636867,-0.6925263388,-2.0371970254,-1.7671849254,-1.5702874011,-1.5972793303,-1.6683749392,0.015334463,-1.100338349,-0.5080773977,-0.9316259008,-2.3731561825,0.2184693042,-0.7851957538,-0.8427999552,0.0754731846,-1.6913264957,0.2315822904,-0.3601501616,-1.3885887686,0.8381670285,-1.4690925623,-1.3586053896,0.2136949527,0.5925899788,-0.689603911,-1.3410295196,-2.40952169,-0.9201026584,-2.4144939303,0.8106881917,-2.3172300712,-2.1695683003,-2.4064665612,-1.2781643034,-1.1394335664,-0.0843004544,-1.9941488877,-0.667611187,-2.4729170341,-2.4144408731,-0.0862037304,-2.1884482589,-0.753289422,0.4912392095,-2.5400935699,0.882760078,-2.434846665,-2.2755385582,0.2403823467,-1.7792121163,-0.933117224,1.0319621039,0.2726117364,-2.2220285329,-0.9050553463,-1.7093812297,-0.1114486223,-1.3159115706,0.3030157477,-1.529555303,-1.1049930614,-0.9515245985,-1.7761226331,-1.5053406515,-0.0875152791,-1.7974401182,0.7589915299,2.1115578383,-1.777868801,-0.8087692419,1.3965950627,-2.3475096256,-0.0273877414,-2.5232596559,-0.7333343036,2.2544681487,-1.3772331289,0.768757522,-1.458715521,-1.5115356824,-1.1132277225,0.3028301345,-1.4671662467,0.0230822109,-1.8643235821,-0.5213219909,1.060002558,-1.3587912674,2.5049169811,2.6230207667,1.9323486211,0.7397889153,1.2814320077,0.158940714,2.4547530168,0.1217785464,-0.8364992996,1.3288894757,-0.0321113536,-0.4730391578,1.8712895343,0.1197266147,2.5614707414,-1.0851141028,-1.8211073202,2.3794990118,-0.6203762086,2.189729293,1.8739891561,0.8337367924,-1.3296245043,0.9047537072,-1.1611814532,0.9499977561,-1.3053363944,1.2540759114,0.2563660978,0.87204677,0.8086475519,1.9232426381,2.2243708365,1.2637363217,1.0732116598,2.430602659,0.6865385932,1.7375188939,1.0696598137,-0.2098792144,2.5048868487,1.0474004615,0.905842722,1.3614364897,0.0301813304,1.6688501301,2.4359827174,0.8009345274,0.832312738,1.9504927567,-1.1816547141,-0.6296346157,1.1544934907,1.9183702065,1.9781048172,0.8645717062,-0.8535155441,-0.5950983502,-2.0998971138,-0.7651694392,-1.6974670716,-1.8097846049,-1.8507667171,-0.9700225619,-0.8833881915,-0.0642343368,2.0664635266,-0.8606333535,0.6167567901,0.6453822346,-2.3212481014,-0.2061655172,-2.0846276951,0.2975488062,2.4997450807,-1.6748892309,0.1317924045,-1.941607758,-1.4146342,0.3053887128,0.3251689921,-1.6479148363,1.1068751388,-2.1147222017,-0.5384188685,-0.6636668861,-0.1990218238,-0.5398790707,-0.8929196562,0.1045352516,-0.5818525213,-0.9603618239,0.6063488409,-0.9731530345,-0.8451647773,-0.8870602006,-0.731377312,0.2318229202,-1.966252334,0.4625618335,-0.7172168649,0.4617307705,0.3367186902,-0.8794143141,-0.9678387207,0.8101208563,0.2282732834,0.9121986463,2.2794812964,0.0495530492,-0.9878394705,-1.3879346138,-0.9200056278,0.4707124136,-2.0743969407,0.6556676561,-2.4551790817,-1.7887153485,-0.6777766245,-0.8316810338,-0.869126551,-0.1578529743,-0.9374072676,-0.8157823643,-2.1527737102,-2.6329009834,0.0751553616,-2.2380384414,-2.2071898626,-0.8730097545,-2.5447617385,0.0772143151,-1.1116708028,-2.4492429531,0.2764024227,-1.1196656728,-1.4259188672,-0.2633141542,-0.2046180098,-2.3518082458,-0.9657177409,-0.8821914928,-0.4616392579,0.8354260949,-0.09788441,2.4649009699,2.5451970373,1.0583826546,0.7360384441,2.0862403853,-0.0280598454,1.9687605363,-0.6726365437,0.8805835776,2.4557820686,0.6718424892,1.0595336063,2.3612106254,0.7375326424,2.5378787474,-0.8258859372,-0.8597571919,1.9082527275,-0.615607036,2.3981548104,0.950403425,-1.6942345754,0.0745833761,2.4602008433,0.9143166926,2.0816636803,-0.3520447451,0.817777048,-1.1149194543,1.0432533595,2.314469703,1.3840188548,2.4188073793,0.6994616213,-0.4899489723,1.0643017941,-0.1275419449,-0.8129100517,2.5624443263,0.2568460127,0.9624634363,1.2680064945,-0.0564597327,1.6275283768,-1.1611608773,0.8897974477,1.5558132206,0.7107024971,2.1758821603,2.3213608433,-1.5656319467,0.1374725687,1.2152480456,-0.1901630189,2.5785015839,0.7511206724,-0.4021701956,-0.4229616518,0.8125202191,0.7727587513,0.3205721005,0.5375367451,-0.0791508741,0.0339191258,1.3146099278,-0.7309656263,-2.1719569867,0.1538505821,-0.0703245655,-2.1710446512,0.9463478323,-0.6306536496,-0.0510927992,-0.1390865938,-1.110229861,-0.1261693051,0.2083399481,-0.2740146252,1.3176111875,1.995641965,1.0390373864,0.9797936776,-2.4928950285,0.2640826462,1.0527893275,-1.7728948972,-0.441525139,-0.8903245367,-1.7497465593,-1.7189162868,-0.8881154366,-1.0825698796,-0.8909782411,-1.8889776079,-0.9322940653,-0.7470191896,-0.808705192,-0.8633660074,-2.1160417592,-1.1252467796,0.7278000572,-2.1117966243,-0.0725363918,-2.5530866576,-1.9406992615,0.1949311174,-2.2601521112,-1.3535082134,0.7643785873,0.6272902639,-1.4335306348,-1.4783337093,-2.4320484606,-0.7362063715
biasActivation=0,1,1
[BASIC:ACTIVATION]
"org.encog.engine.network.activation.ActivationSigmoid"
"org.encog.engine.network.activation.ActivationSigmoid"
"org.encog.engine.network.activation.ActivationLinear"
